FANN_FLO_2.1
num_layers=4
learning_rate=0.700000
connection_rate=1.000000
network_type=0
learning_momentum=0.000000
training_algorithm=1
train_error_function=0
train_stop_function=0
cascade_output_change_fraction=0.010000
quickprop_decay=-0.000100
quickprop_mu=1.750000
rprop_increase_factor=1.200000
rprop_decrease_factor=0.500000
rprop_delta_min=0.000000
rprop_delta_max=50.000000
rprop_delta_zero=0.100000
cascade_output_stagnation_epochs=12
cascade_candidate_change_fraction=0.010000
cascade_candidate_stagnation_epochs=12
cascade_max_out_epochs=150
cascade_min_out_epochs=50
cascade_max_cand_epochs=150
cascade_min_cand_epochs=50
cascade_num_candidate_groups=2
bit_fail_limit=3.49999999999999977796e-01
cascade_candidate_limit=1.00000000000000000000e+03
cascade_weight_multiplier=4.00000000000000022204e-01
cascade_activation_functions_count=10
cascade_activation_functions=3 5 7 8 10 11 14 15 16 17 
cascade_activation_steepnesses_count=4
cascade_activation_steepnesses=2.50000000000000000000e-01 5.00000000000000000000e-01 7.50000000000000000000e-01 1.00000000000000000000e+00 
layer_sizes=35 25 8 2 
scale_included=0
neurons (num_inputs, activation_function, activation_steepness)=(0, 0, 0.00000000000000000000e+00) (0, 0, 0.00000000000000000000e+00) (0, 0, 0.00000000000000000000e+00) (0, 0, 0.00000000000000000000e+00) (0, 0, 0.00000000000000000000e+00) (0, 0, 0.00000000000000000000e+00) (0, 0, 0.00000000000000000000e+00) (0, 0, 0.00000000000000000000e+00) (0, 0, 0.00000000000000000000e+00) (0, 0, 0.00000000000000000000e+00) (0, 0, 0.00000000000000000000e+00) (0, 0, 0.00000000000000000000e+00) (0, 0, 0.00000000000000000000e+00) (0, 0, 0.00000000000000000000e+00) (0, 0, 0.00000000000000000000e+00) (0, 0, 0.00000000000000000000e+00) (0, 0, 0.00000000000000000000e+00) (0, 0, 0.00000000000000000000e+00) (0, 0, 0.00000000000000000000e+00) (0, 0, 0.00000000000000000000e+00) (0, 0, 0.00000000000000000000e+00) (0, 0, 0.00000000000000000000e+00) (0, 0, 0.00000000000000000000e+00) (0, 0, 0.00000000000000000000e+00) (0, 0, 0.00000000000000000000e+00) (0, 0, 0.00000000000000000000e+00) (0, 0, 0.00000000000000000000e+00) (0, 0, 0.00000000000000000000e+00) (0, 0, 0.00000000000000000000e+00) (0, 0, 0.00000000000000000000e+00) (0, 0, 0.00000000000000000000e+00) (0, 0, 0.00000000000000000000e+00) (0, 0, 0.00000000000000000000e+00) (0, 0, 0.00000000000000000000e+00) (0, 0, 0.00000000000000000000e+00) (35, 11, 5.00000000000000000000e-01) (35, 11, 5.00000000000000000000e-01) (35, 11, 5.00000000000000000000e-01) (35, 11, 5.00000000000000000000e-01) (35, 11, 5.00000000000000000000e-01) (35, 11, 5.00000000000000000000e-01) (35, 11, 5.00000000000000000000e-01) (35, 11, 5.00000000000000000000e-01) (35, 11, 5.00000000000000000000e-01) (35, 11, 5.00000000000000000000e-01) (35, 11, 5.00000000000000000000e-01) (35, 11, 5.00000000000000000000e-01) (35, 11, 5.00000000000000000000e-01) (35, 11, 5.00000000000000000000e-01) (35, 11, 5.00000000000000000000e-01) (35, 11, 5.00000000000000000000e-01) (35, 11, 5.00000000000000000000e-01) (35, 11, 5.00000000000000000000e-01) (35, 11, 5.00000000000000000000e-01) (35, 11, 5.00000000000000000000e-01) (35, 11, 5.00000000000000000000e-01) (35, 11, 5.00000000000000000000e-01) (35, 11, 5.00000000000000000000e-01) (35, 11, 5.00000000000000000000e-01) (0, 11, 0.00000000000000000000e+00) (25, 11, 5.00000000000000000000e-01) (25, 11, 5.00000000000000000000e-01) (25, 11, 5.00000000000000000000e-01) (25, 11, 5.00000000000000000000e-01) (25, 11, 5.00000000000000000000e-01) (25, 11, 5.00000000000000000000e-01) (25, 11, 5.00000000000000000000e-01) (0, 11, 0.00000000000000000000e+00) (8, 6, 5.00000000000000000000e-01) (0, 6, 0.00000000000000000000e+00) 
connections (connected_to_neuron, weight)=(0, -2.29238497042994093800e-01) (1, 1.18728104152264604676e-01) (2, -1.18829898423722605388e-02) (3, 1.66959988246846269266e-01) (4, 2.23514573942112965144e-01) (5, 9.62324993634520037267e-02) (6, 2.34644114753886183500e-02) (7, -9.30950396126242890604e-02) (8, -5.52328468073929948479e-02) (9, 1.07916686785190802517e-02) (10, 1.14864110611861223316e-02) (11, -4.68608312408532873272e-02) (12, 7.80096724629402160645e-02) (13, 1.61586299675504745099e-02) (14, -2.74776316271747138298e-02) (15, -5.82725117317570776021e-02) (16, -1.41067859995014609209e-02) (17, -6.69768251918449325499e-02) (18, 2.55337856270181420837e-02) (19, 5.34214178649046050884e-02) (20, -4.89685111982272880393e-03) (21, 2.07167609098434617187e-02) (22, -5.64219496977095003043e-02) (23, 1.37982813221630029599e-01) (24, -6.95916974889329575937e-02) (25, -1.14496957957376556403e-02) (26, 3.76016644581113126944e-02) (27, 4.79711336123046991342e-02) (28, 1.45965040856704288130e-02) (29, -2.90284934792362850353e-02) (30, 2.45849869105437233985e-02) (31, -2.01267615913074578160e-02) (32, -7.79376934414951205721e-02) (33, -6.11028303931515377051e-03) (34, -5.81963679018307922242e-01) (0, 1.22640257361781662704e-01) (1, -3.26452325354866859652e-02) (2, 3.98386122632403083532e-01) (3, -2.55036712937639964416e-01) (4, -2.64091548823402799684e-01) (5, -6.93358732942517957953e-02) (6, -4.07590803442064442130e-02) (7, 5.57603779191629955747e-02) (8, -6.08185576240425282424e-02) (9, -5.36914332278986931868e-03) (10, -4.59395110394494599060e-02) (11, 8.39086820922770905418e-03) (12, 1.23692378401756286621e-02) (13, -7.70398468081427614113e-03) (14, 1.57699437898258437718e-01) (15, -1.00155448641834121659e-01) (16, -1.07486755713280771052e-01) (17, 9.49292789950546417321e-02) (18, 3.78374915375883358326e-02) (19, -5.19203926278243000324e-04) (20, 8.23710431828261480103e-02) (21, -3.56643718830381567519e-02) (22, 2.20317693358397384898e-03) (23, -7.59447645131189480461e-02) (24, 5.45944584603147171215e-03) (25, -1.19280012954086495069e-01) (26, -2.77011489579697990637e-02) (27, -4.93238486584250679368e-02) (28, 3.45867712012626208132e-03) (29, 8.74273223948353050972e-02) (30, -3.84465655855490071047e-02) (31, -1.95458187286438574495e-03) (32, -1.49471067504296256656e-01) (33, -8.73252406606723485805e-02) (34, 7.10723090424129622100e-01) (0, -2.79093404839611425317e-01) (1, -2.40395340547371161311e-01) (2, 2.06462641984570642595e-02) (3, 3.96227758162134777176e-02) (4, 4.55662082665079723465e-02) (5, 1.02084962584979149769e-01) (6, 1.24961451263373019005e-01) (7, -1.74735734831621032648e-02) (8, 1.35697761394740185059e-01) (9, 9.42203592475613083135e-02) (10, -3.44879756924594688128e-02) (11, 2.02288862698777362203e-02) (12, -1.03559494018554687500e-02) (13, 1.50654612563662221314e-02) (14, 5.54429686546399347336e-02) (15, 9.85398797988957658722e-02) (16, 3.48671439695534338132e-02) (17, -1.29378997756582431178e-01) (18, 3.06277637943212881211e-02) (19, -3.01969068213075141072e-02) (20, 7.98813483132645757619e-04) (21, 1.65640305604122621552e-02) (22, 7.83742432393741829226e-04) (23, 6.78712364171503851340e-02) (24, -9.67032355787391349755e-03) (25, -1.19674841785037996966e-01) (26, -1.12613929647678873841e-02) (27, -4.10086243263117489199e-02) (28, 4.67905057539064611616e-02) (29, 1.42625591405685869795e-01) (30, 7.89815047409256898447e-02) (31, 1.35903200373256732858e-01) (32, -6.24545164434503682904e-02) (33, 7.62845745613311976285e-02) (34, -6.13903320480194691910e-01) (0, -1.19848298956904311674e-01) (1, -3.59270553733139208497e-02) (2, 1.18966564666830115771e-01) (3, -8.61754607284276608059e-02) (4, -5.36170270168988688519e-02) (5, 4.77100184890142595129e-02) (6, 1.01477972756444892455e-01) (7, -1.23102210574858369346e-02) (8, -5.53566237340709713100e-02) (9, 6.05254273277979412682e-02) (10, -5.54718345540237897651e-02) (11, -4.74841617464256959824e-02) (12, -6.56609982252120971680e-03) (13, -4.24040091038897226650e-02) (14, 1.00354616074319252794e-01) (15, 3.15586761674798849109e-02) (16, 4.16344058520186008354e-02) (17, 1.00502453712967496080e-01) (18, -7.07567707018579433731e-02) (19, -6.03404046094820484258e-02) (20, -5.43203880885953227509e-02) (21, -4.94238319367705375429e-02) (22, -6.98876201803350638464e-02) (23, -8.40295889166787213220e-02) (24, -2.70638783169620915359e-02) (25, -8.37288595532983542791e-02) (26, -3.58292662646575998942e-02) (27, -6.24744052656235268617e-02) (28, -1.10951214679515415551e-02) (29, -5.66594570245488038385e-02) (30, -3.90854684285202105820e-02) (31, -3.10284813431333829359e-02) (32, -1.77706124308092822117e-02) (33, -2.73824411344001025781e-02) (34, -1.61884406175502376310e-03) (0, 3.36560368953154054328e-01) (1, 1.79791463360200465260e-01) (2, 3.99545495333355094036e-01) (3, -1.01219296419028673140e-01) (4, -4.46968301767152811910e-02) (5, -1.56040228284234860912e-01) (6, -4.08686727706838795471e-02) (7, 2.20447634896192706799e-02) (8, 2.21668033788797701200e-02) (9, -3.59674790016787163105e-02) (10, -2.40984466845028987361e-03) (11, 5.31344616306844534648e-04) (12, -3.49900871515274047852e-02) (13, 2.20484248114095858495e-02) (14, 6.53030145117573877084e-03) (15, 2.63606224195543359379e-02) (16, 1.70538974470084286894e-02) (17, -1.50446287430187584933e-02) (18, 9.57267069450410713893e-03) (19, -2.29849121738967196449e-03) (20, 8.52501404855281544326e-03) (21, 8.47694674940873728330e-03) (22, -9.20472527009059439396e-03) (23, -5.84263484552180814569e-02) (24, -6.36643064865155400289e-02) (25, 7.21728791019150967001e-02) (26, 1.36248946608791398488e-02) (27, -7.67415259047032893847e-02) (28, -6.50056143474385117464e-02) (29, 3.26105297056298176761e-02) (30, -3.74039497752087293780e-02) (31, 4.64356843628040485972e-03) (32, 5.51170178422367360027e-02) (33, -6.43744512139916152949e-02) (34, 8.10544409656282160981e-01) (0, 2.53813749368867080936e-01) (1, 1.41352330553744992558e-01) (2, -4.98076993256591285530e-02) (3, -1.86379258742532735726e-02) (4, -7.93548752775391219583e-02) (5, -9.23841469053805937339e-03) (6, 1.45891582707269058111e-03) (7, -1.66329733636714736933e-02) (8, -9.33686875978120278674e-02) (9, -8.23498439996189421364e-03) (10, -2.42566446452573006645e-03) (11, -7.44775466821129619732e-03) (12, 4.24107834696769714355e-02) (13, 3.75481544637308109480e-02) (14, 6.01286641352886605527e-02) (15, 1.77571781684150137304e-01) (16, 1.42050074568343565051e-01) (17, 8.07104681395655748632e-02) (18, 2.72465988627706252531e-03) (19, 2.79805517290511278350e-02) (20, -6.25241891238632330197e-02) (21, 1.69107620809255780603e-02) (22, 3.43988014869225783299e-02) (23, -1.12904069392900902047e-01) (24, -1.08808467555945337368e-01) (25, -3.79743083444941953442e-02) (26, 8.74828446571640910845e-02) (27, 5.35787249973814633242e-02) (28, 4.64798719022546311108e-02) (29, -2.46910849760795317320e-02) (30, -3.35560722897989133218e-02) (31, 1.63787388976847012034e-02) (32, 5.40817423293346657975e-02) (33, -9.39272068909454416197e-02) (34, 1.13994338910061138170e-01) (0, -1.45394537918569557999e-02) (1, 6.48293600066495862011e-02) (2, -1.52519189643104680076e-01) (3, -4.38057037407463475964e-02) (4, 1.05755619484751942072e-01) (5, 1.14225426323933502981e-02) (6, -2.51723887442053054220e-02) (7, 2.78050046379279235109e-02) (8, 7.25859171079881460020e-02) (9, 7.74653658071464412682e-02) (10, -8.41327767092716616304e-02) (11, 1.41921275314074307738e-01) (12, 1.23196020722389221191e-02) (13, 5.63134414071289959858e-02) (14, 1.40545909982799033244e-01) (15, -2.61170331098290811611e-02) (16, -8.24193383596819179049e-02) (17, 2.83446859738609689694e-02) (18, 5.82820724866175143841e-02) (19, -9.37893761380875073952e-02) (20, 5.98300082841830768721e-02) (21, -6.85859807282791916760e-02) (22, -4.17025037184285476966e-02) (23, 3.96517162327913036401e-02) (24, -1.65613753183081219289e-01) (25, -2.90182816698721958437e-02) (26, -1.99062561697180778015e-04) (27, 6.71862883331360433159e-02) (28, -9.37123682572330723994e-02) (29, 3.54146929536931220905e-02) (30, -4.32846296473055752729e-02) (31, 1.22565773117513598933e-01) (32, -5.46817627153725338562e-02) (33, -5.87749830814487256303e-02) (34, -1.33576478065302161474e-02) (0, 4.49725893250993769001e-01) (1, 4.42042616968886969975e-01) (2, 1.32259348132346499227e+00) (3, -3.96445629649560399299e-02) (4, -2.24085909777086561556e-02) (5, -2.96476381264267388992e-04) (6, -2.35560934508074679150e-02) (7, 2.48705630652700619698e-02) (8, -4.53328847932055259418e-02) (9, -3.58256588405904061179e-02) (10, 3.01080136244105053822e-02) (11, -9.55014988164699374362e-02) (12, -3.60517948865890502930e-02) (13, 9.55679694316701085210e-03) (14, -3.09196959357081052611e-03) (15, 3.21819133289014541743e-02) (16, 3.79607844856945514378e-02) (17, 4.09172558581791454002e-02) (18, -3.81867802345787973883e-02) (19, 1.21334095285593698312e-03) (20, -1.95847168939267887722e-02) (21, 1.44777715209712699862e-02) (22, -5.95513349773426486911e-03) (23, -3.50446189330710991539e-02) (24, 3.85613362154548153238e-02) (25, 1.32919096692630106515e-01) (26, 1.13907110595582519719e-02) (27, -1.38197856882093482456e-02) (28, -1.12885090008357488744e-01) (29, -7.68475767830545646725e-03) (30, -2.74352389581713797251e-02) (31, 6.57355767458811177106e-03) (32, -7.09638693883069080620e-03) (33, 3.62032637704167922776e-02) (34, 7.12964489830518299840e-01) (0, 1.29364289690810652100e-01) (1, -9.15443309605556559960e-02) (2, -4.13240426554451256713e-01) (3, -1.58467007459080405640e-01) (4, -1.23870907009518554931e-01) (5, -1.81149607195688233663e-01) (6, -4.17334664134259014645e-02) (7, 4.33192445256207689375e-02) (8, 2.73782240731866507999e-02) (9, -3.93461035975318715319e-02) (10, 3.92245524745560222857e-02) (11, -8.59705838901357738413e-02) (12, 2.72063165903091430664e-03) (13, 5.30891785236876391496e-03) (14, 6.17812593558436720653e-02) (15, 6.49506929499835267139e-02) (16, -1.99225995412360239178e-02) (17, 4.84618280144175767044e-02) (18, -2.43830498246708493593e-02) (19, 4.98370853429001628432e-02) (20, 2.33978715872071897641e-02) (21, -1.82923954661909082819e-02) (22, 9.37653190600447154768e-03) (23, -1.01412849999505963461e-01) (24, -8.59907503276044343776e-02) (25, 4.41353795456750769288e-02) (26, 5.95127170930027302176e-02) (27, -1.88013158418907193326e-02) (28, -4.22262559843805326820e-02) (29, -2.63659981845678070833e-02) (30, -8.01183449924669499609e-02) (31, 3.90457785129222009757e-03) (32, -9.71898217089222915543e-02) (33, -1.46661390509717388941e-02) (34, 6.23324874714856536073e-01) (0, -7.26214997648803456398e-02) (1, 1.95147267069328347877e-02) (2, 9.30965264242843704157e-02) (3, -1.37222524065975706037e-02) (4, 7.85573913860275994947e-03) (5, 7.00342987922017989888e-02) (6, 1.40098573712112761669e-01) (7, 3.10007184465463693501e-02) (8, -2.70531532298516029511e-02) (9, 3.79145352220306638968e-02) (10, 2.09882592863419696616e-02) (11, -6.60686843140707857902e-02) (12, -7.94283002614974975586e-02) (13, 4.31682523187717215318e-02) (14, 8.97903357745896413267e-02) (15, -2.62767438050972232388e-02) (16, -1.56288673326370752825e-02) (17, 5.70981839906719579325e-02) (18, -7.58477782595607524785e-02) (19, 3.36193157169235382065e-02) (20, 1.72831574043651389760e-02) (21, -4.02276640393046669431e-02) (22, -1.21091760895178437996e-01) (23, 8.38801131716501169322e-02) (24, -1.18525427871299354754e-01) (25, -9.95090652651531848427e-02) (26, -1.33043766101704347138e-01) (27, 6.47592781281308288444e-02) (28, -1.41126564763106535777e-02) (29, 4.28169955939394150657e-02) (30, 7.04971595031511771845e-02) (31, 1.51188923323131635401e-01) (32, -6.70464024388015000788e-02) (33, -2.02966536683157686149e-02) (34, -2.53309986920670249244e-01) (0, -2.61511179182838782165e-01) (1, -2.38613310340194950676e-01) (2, -5.21866151968714109266e-01) (3, 2.11741272862057509918e-02) (4, 8.01076931310736733982e-03) (5, 2.21927793210142873526e-02) (6, 3.34685193381490178610e-02) (7, 3.61309914799595342447e-03) (8, -3.50240370530603903343e-02) (9, -4.56223081120037728814e-03) (10, -4.89564890671419748747e-03) (11, 6.72723602144176171386e-04) (12, 7.10409879684448242188e-03) (13, 5.68848920387270556853e-02) (14, 1.05020209808899742110e-01) (15, 1.01309370172555965328e-01) (16, -3.43735151878695396888e-02) (17, -7.08582576666112783428e-04) (18, -4.62153430546857826866e-02) (19, -4.86102853929454292725e-02) (20, -3.27378700664952351773e-02) (21, -6.29371762581650701085e-02) (22, -7.69415297492632033888e-03) (23, -1.72647827823192434593e-02) (24, -6.74501852903010463980e-03) (25, 3.43760416800502621726e-02) (26, -8.08169403471987041199e-02) (27, 4.80671183486883132896e-02) (28, 1.09721262849748715795e-01) (29, -7.61446566796587509529e-02) (30, 2.80125761508952450529e-02) (31, -3.49530812491059064695e-02) (32, 4.07982313921048528327e-02) (33, 7.54180444246018016896e-02) (34, -3.23676127549657133287e-01) (0, 5.47758236923842622978e-02) (1, -5.91543389391860352511e-02) (2, -4.67108507427758737340e-02) (3, -9.55084872085510544482e-02) (4, -2.59898348039977250198e-03) (5, -7.50048687237922090398e-02) (6, -5.03185726700473290318e-02) (7, -1.28093648820285389150e-02) (8, -5.56680558673127157121e-02) (9, -6.99732896025303217902e-03) (10, -5.22027094181827522323e-02) (11, -6.53185505863529136672e-02) (12, -3.78927960991859436035e-02) (13, -1.83480037253718475387e-02) (14, -8.09287719542886446744e-02) (15, 4.98683928651956626110e-02) (16, 2.73571916125733248515e-02) (17, -1.38750907724216211020e-02) (18, -5.06315578465773782901e-02) (19, 1.02109895850287846208e-01) (20, -3.68399303419450624419e-02) (21, -2.41772592708908197479e-02) (22, 1.39406389731918517461e-01) (23, 2.10581894576000946961e-02) (24, -6.22803490038763563064e-02) (25, 1.49035838607794613592e-02) (26, 5.54020010166263870977e-02) (27, -2.28308688802867573719e-02) (28, -3.45606036121578336084e-02) (29, 1.95548251325772248777e-02) (30, -2.41764266587621047544e-02) (31, 7.31588251445935561224e-02) (32, 6.67995232669804789305e-02) (33, 5.27692129116168265335e-02) (34, 2.08556355433035245373e-01) (0, -1.66764107395487554131e-01) (1, -1.35281867727272769875e-01) (2, -1.13031768654716313627e-01) (3, 6.99162849299703875738e-02) (4, 4.70290401093758775319e-02) (5, 6.52160345193996265900e-02) (6, 1.72143177007228143083e-01) (7, 1.28022924281134153901e-01) (8, -4.76428509319965151625e-02) (9, 8.67757291749133262415e-03) (10, -6.13699059570416149967e-02) (11, -1.87086286105799422252e-02) (12, -6.37195184826850891113e-02) (13, -4.73444487943446012945e-02) (14, -4.82937642706950942539e-02) (15, -2.16336357785824849598e-02) (16, -1.73918308573773293391e-02) (17, 7.57706204213379752588e-02) (18, -6.72532229049233910845e-03) (19, 4.93445783702947324278e-02) (20, 5.66001012699593811228e-03) (21, -2.49776133059700193584e-02) (22, -2.00570973074319786056e-02) (23, -6.04348415142408681988e-02) (24, 6.93443503328358551441e-02) (25, 5.87808277462590136886e-02) (26, -7.31069606692829471184e-02) (27, 1.84979588897256838620e-02) (28, 4.61459218561815140425e-02) (29, -9.87477459323226891552e-02) (30, 1.56452155552254772164e-02) (31, -6.35165674938714397424e-02) (32, -4.58087058349026521320e-02) (33, -8.21857378501620050582e-02) (34, -1.28132847502758662195e-01) (0, 3.80989286616047084788e-01) (1, 5.03093458922345138085e-01) (2, 1.26825255151222449079e+00) (3, -4.23026887230237638726e-02) (4, -3.48784235767682290752e-02) (5, -1.00696365309301868324e-02) (6, -8.28310744227657262673e-03) (7, -6.55716032474879927799e-03) (8, 3.79048011074154186928e-02) (9, -2.40357669331677584190e-02) (10, 5.24067264335455456487e-03) (11, -9.39826490152462722637e-05) (12, 5.71851208806037902832e-02) (13, 8.33451867660520498426e-03) (14, 1.38053223195716799621e-02) (15, 9.29687946702396276859e-04) (16, 4.54765203425460950992e-02) (17, -5.57070008107697980937e-02) (18, 5.37060269525969566362e-02) (19, 5.70135610022671265179e-03) (20, -6.30028871316488069121e-03) (21, 8.39626397327482808242e-03) (22, -7.94639357478194550966e-03) (23, -1.05790724657286398097e-02) (24, 1.58534596011659194292e-02) (25, -2.15512061544401237190e-02) (26, -8.08488729632001737122e-04) (27, -1.61967804756580381620e-02) (28, 2.05095409077665664921e-02) (29, 7.59765018706943726090e-03) (30, -1.12497539056106120314e-03) (31, 8.00717849074537510456e-03) (32, 1.46670888283968042787e-02) (33, 6.71966853457961477147e-02) (34, 6.75425495395788222375e-01) (0, 1.53734145572604258279e-01) (1, -4.34263442755414702523e-02) (2, 4.90709845282578868697e-02) (3, -1.44181563923167527230e-01) (4, 7.32663326521030850574e-03) (5, -3.81327648108943859095e-02) (6, 7.22842709394133382111e-03) (7, 3.63283418166915131331e-02) (8, -5.53216806532520616324e-02) (9, 1.72147238777205710547e-02) (10, -1.59305818298966159197e-02) (11, 2.88715807938616647599e-02) (12, -8.24918597936630249023e-03) (13, 5.87231766337860047744e-02) (14, 7.20694376905315226695e-03) (15, -4.59212975242012239052e-02) (16, -1.07301021700695636829e-01) (17, 6.13433424416592251727e-02) (18, -1.44245769795367760613e-02) (19, -5.80217433722577252686e-02) (20, 1.22642790655466040611e-02) (21, 1.75914115631108751436e-02) (22, 5.46279480543016837668e-02) (23, 3.29644144731470259413e-02) (24, 3.38237074819080635324e-02) (25, -1.04896033221412252751e-02) (26, -4.76163106085702864112e-02) (27, -5.16804455446324209622e-02) (28, -8.99520765704113905992e-02) (29, -9.44282556247282578443e-02) (30, -5.28635616553718018507e-02) (31, 7.80554398137247446021e-02) (32, -3.62169915824893245970e-02) (33, 7.82595441061120222770e-02) (34, 6.50853141872627938280e-02) (0, -3.84826130229734553190e-02) (1, -3.81679659326687667487e-02) (2, -2.30808605976659808601e-02) (3, 3.38352478300586595461e-02) (4, -5.31307681892681060547e-04) (5, -4.17528594041361375555e-02) (6, -1.00736706652417878916e-01) (7, -5.23671943380180845984e-02) (8, 6.70339569602951407257e-02) (9, -1.43692204969708858808e-01) (10, -7.87540035083980349828e-02) (11, -1.32593565587593387178e-01) (12, -5.89623749256134033203e-02) (13, 2.43948738998969565095e-02) (14, -2.51255622663919472859e-02) (15, -3.75780709787415997947e-02) (16, -5.01584296181985939134e-02) (17, 8.60829956045754129956e-02) (18, -8.70024108180396382739e-02) (19, -3.61266610330788530414e-03) (20, -5.63653357961437229129e-02) (21, 3.54640182714009363774e-03) (22, 2.08546585179396198884e-02) (23, 2.42656355530223195871e-02) (24, 6.03802970940873068306e-02) (25, 4.06910212085966060958e-02) (26, 6.51163424688379621763e-02) (27, -1.42100805974867960835e-02) (28, 7.50031888196903695487e-02) (29, 1.94466876022266511870e-02) (30, -2.77800091953964642388e-02) (31, -9.33711388538579073471e-02) (32, -9.82933956812141601533e-02) (33, -6.15501068649450602810e-02) (34, 8.92795400554852042196e-02) (0, -1.83503111811293501132e-01) (1, -1.66306666150962206840e-01) (2, 2.67427506699235872922e-01) (3, 1.02969761451992519730e-01) (4, 2.15792390315867714523e-02) (5, 1.36551358754746554602e-01) (6, 8.78597439918029077255e-02) (7, -2.90566948841003321047e-02) (8, -4.03134557694486833634e-02) (9, 4.46103072072098066903e-02) (10, -2.27067760805226906418e-02) (11, 8.37398568488565298723e-04) (12, 6.86232522130012512207e-02) (13, 1.64415957753469600677e-02) (14, -3.32951849025913499888e-03) (15, -7.06884235794343618320e-02) (16, -4.00154920643303463335e-02) (17, -8.67551333786083650468e-02) (18, 9.47810568331645536544e-02) (19, 7.95354618536031621190e-03) (20, -1.36610555006653790200e-02) (21, -9.65947524594164448619e-03) (22, -9.62897328656425396942e-03) (23, 1.03786298293668657888e-01) (24, 3.78072228977022056773e-02) (25, -9.17729086066690867562e-03) (26, -5.00203408408245592254e-02) (27, -1.09858189562276795624e-04) (28, 7.45521680193750174714e-02) (29, -2.74844121139471500581e-03) (30, 2.84298835406859816410e-02) (31, 1.43999776012524866031e-02) (32, -5.17894148468070122937e-02) (33, -6.32548048113766164802e-02) (34, -5.14956620096634232198e-01) (0, -4.66708549702889580191e-02) (1, -1.91336700186125197032e-01) (2, -1.94551926376607786651e-01) (3, 6.18303142277473322119e-02) (4, 5.83734124688378847035e-02) (5, -4.87788691077769859944e-03) (6, 2.01805189910254888230e-02) (7, 2.99626566831024745974e-02) (8, 8.67424726472602186655e-02) (9, 3.81053554713447085317e-03) (10, -4.00834498696205909773e-02) (11, -1.01840040181124785040e-02) (12, -3.40516567230224609375e-02) (13, -5.03266036869447763724e-02) (14, -8.50978443958409214165e-02) (15, 5.51900466671939524121e-02) (16, 2.70720924516170968754e-02) (17, -2.97442259864634482580e-02) (18, -1.45037013538343445562e-01) (19, 5.63778680640006496505e-02) (20, -1.39290836646211668715e-01) (21, 3.86422089985428915404e-02) (22, -1.60876470512394224854e-02) (23, -1.59704434490118354906e-02) (24, 7.72262238087004365683e-02) (25, -9.66304719811546530828e-02) (26, 7.76325909318567042305e-02) (27, -2.32786183625922175888e-02) (28, -1.44167815009495475093e-02) (29, 3.24050781122084269326e-02) (30, 5.06087632212174204360e-02) (31, -1.60577748756817045850e-02) (32, -8.35840945002242763362e-02) (33, -7.19647686479058384945e-02) (34, -2.09012597138675565445e-01) (0, 6.04247192605357336115e-02) (1, -3.99409906470989534144e-02) (2, 1.39026772545512766754e-01) (3, -9.52466025984383263259e-02) (4, 5.55656023287674355471e-02) (5, -4.99917256913199950508e-02) (6, -1.78816683010791892261e-02) (7, -2.01207743022434326630e-02) (8, -2.39070332648505939899e-02) (9, -1.67081283349367809565e-01) (10, -2.83109643718980966143e-02) (11, -1.79318836919823171305e-01) (12, 8.76339897513389587402e-02) (13, 7.24709747889551170186e-02) (14, -1.50120276554835146987e-01) (15, 9.08348770461863408432e-02) (16, 6.60091434252174646957e-02) (17, -3.93385090214499189010e-02) (18, -1.87787995023017163787e-02) (19, -1.57373846137285507141e-02) (20, -5.65970119137316693414e-02) (21, -2.39029864074619784187e-02) (22, -7.30717943450793910865e-02) (23, 2.16963609208989452459e-02) (24, 2.85982398980693108825e-02) (25, -2.76819429148914171457e-02) (26, -1.53113922000185434524e-02) (27, 4.28898565837830276354e-03) (28, -6.30703157660012919683e-02) (29, -1.05716002143565634963e-01) (30, -8.45180118547558950626e-02) (31, 1.47518467042457458033e-02) (32, 5.00973599491147739138e-02) (33, 5.76864271788073770808e-02) (34, 1.95269950883394743935e-01) (0, 2.14630184524301798055e-01) (1, 2.51090409846594253551e-01) (2, 3.04983208401749694705e-01) (3, 8.31511772398318797783e-03) (4, -1.10736450486142209981e-01) (5, -4.86296301344278023016e-02) (6, 5.71397930500937550197e-03) (7, -5.57113904293526016054e-02) (8, 2.94100942516119442938e-02) (9, -8.94787336853724094010e-03) (10, -2.66937741735892184944e-03) (11, -5.67344173520801554889e-03) (12, 1.96219831705093383789e-02) (13, 1.11332167824328542166e-02) (14, -3.84613499456805743582e-03) (15, -7.80907149500623398719e-02) (16, 2.34967098972766325060e-02) (17, 8.66313258808602548733e-02) (18, -2.70328131813058515631e-02) (19, 5.13171029891542063162e-02) (20, -2.26835867924690612329e-02) (21, 1.53103535554711660954e-02) (22, -4.05710207869676570125e-02) (23, -7.91025295039032155797e-02) (24, 7.19293563105488642506e-02) (25, 4.51744658789337075189e-02) (26, -5.41435552226371963336e-02) (27, -4.86575734987087227257e-02) (28, -5.35649395178498174963e-02) (29, 8.85737900587796195273e-02) (30, -1.19273982611164015843e-02) (31, -3.66526221096977146072e-04) (32, 6.11306909216638161286e-02) (33, 9.63393982458919662104e-02) (34, 3.54808253309103982520e-01) (0, 1.14831883767935474805e-01) (1, 4.39163601059237365676e-02) (2, -9.71556508411901276201e-02) (3, 6.91816757097557938350e-02) (4, -1.05739605926005508785e-01) (5, 2.22848095607038887422e-02) (6, -6.77337505126853478554e-02) (7, -1.31038988892750469378e-02) (8, 2.03111229068532322950e-02) (9, 2.37774924179915813499e-03) (10, -9.32608558237412871295e-02) (11, -6.85050063846355614811e-03) (12, -6.39016628265380859375e-02) (13, 8.65031864361497926375e-02) (14, 2.55345891280215377128e-02) (15, -1.13328954444866014661e-01) (16, -2.71860379590918369019e-02) (17, -3.77075900724591420166e-02) (18, -3.92404129198254750244e-02) (19, 3.04297896369674567008e-02) (20, -3.69205385217840353906e-02) (21, 9.64043762404185738957e-02) (22, 1.64086312188525505762e-02) (23, 2.44067700653630877128e-02) (24, -9.17886753495573554096e-02) (25, 7.82602671243994019168e-03) (26, -7.46301353640886760976e-02) (27, 5.30326444487124459837e-02) (28, -5.07390855585413760864e-02) (29, -9.30012480792060669543e-02) (30, -8.16909157305730493359e-02) (31, 8.17350464198297599339e-02) (32, 3.22921972959758774024e-02) (33, -3.59860214409381887202e-02) (34, 1.75668254915772842351e-01) (0, -2.19869835085134940345e-01) (1, -3.14639300489936213356e-01) (2, -6.03694374566893787737e-01) (3, -5.05752940736452216708e-02) (4, 8.11953837909059616962e-02) (5, 6.18346544576964807227e-02) (6, 2.08305385794198185540e-03) (7, -1.05080476887166856387e-02) (8, -5.29222317523514729221e-02) (9, 8.61416353085154296032e-02) (10, -4.96705623898842461156e-03) (11, -4.68697834241352338097e-03) (12, -5.35167194902896881104e-02) (13, -1.39213013304327233588e-02) (14, 7.14958089846304874898e-03) (15, -2.78355182697819746040e-02) (16, -2.63122152111264807905e-02) (17, 2.83588206835092941638e-02) (18, -2.09554547004400758270e-02) (19, -7.22058461271912060964e-02) (20, 3.35334680207203042479e-03) (21, -8.17267931345971691826e-03) (22, -3.06566179301985064845e-03) (23, 1.94082188699739206783e-02) (24, -7.53689568020575982599e-03) (25, -1.33561248214296685033e-01) (26, -4.52169674450123501575e-02) (27, 8.01491812342442488948e-02) (28, 6.05709595926677557554e-02) (29, -1.26086342499389329058e-02) (30, 4.40688678866780689236e-02) (31, -3.02093641374326787874e-02) (32, 8.90413864030325935550e-02) (33, -9.72137497364845976078e-02) (34, -4.24771476215155763256e-01) (0, -8.15645677581434552783e-02) (1, 1.27980836898673761004e-01) (2, -9.80030641011541032992e-03) (3, 2.29291131208338494485e-01) (4, 2.40496431897082141305e-01) (5, 5.66245441792117970570e-02) (6, 8.53402793756333384600e-03) (7, -8.72045676070733327689e-02) (8, 6.94283366769038456923e-02) (9, -2.60130448980285498839e-02) (10, 2.21193496113708636119e-02) (11, -3.40826131724817141255e-02) (12, -7.61083811521530151367e-02) (13, -6.87032763775826445934e-03) (14, -2.72981854227677574187e-02) (15, -6.30342437758699310202e-03) (16, 1.02495170290791803858e-01) (17, -1.47277563402515142971e-02) (18, 1.82567611744540829466e-02) (19, 8.46492016299140864755e-02) (20, -1.25499813516822100734e-01) (21, 4.72696132320223685874e-02) (22, -4.38662147833984369938e-02) (23, 2.43509652737912349330e-02) (24, -9.49560313886780617276e-03) (25, 4.84694170848522162820e-02) (26, 1.65673563695735645562e-02) (27, 1.31440882511596034837e-02) (28, -2.34670522851277004936e-03) (29, 1.74271332966529218789e-02) (30, 2.28787187096457164670e-02) (31, -3.58003499108823161623e-02) (32, 6.66628505286599032376e-02) (33, -7.79145342943434321414e-02) (34, -3.87916656309643947953e-01) (0, 1.04910386931435090085e-02) (1, 2.89781896376321013165e-02) (2, 2.67101614187249883359e-02) (3, 8.75598389667944926318e-02) (4, -5.21045438819376770939e-03) (5, 8.33869440561461477968e-02) (6, 4.06022420479585088859e-02) (7, 1.12936297232817353664e-01) (8, -7.54540097115521390947e-02) (9, 8.67018303287784147804e-02) (10, 7.48191048038767628908e-03) (11, -2.74986301564160082189e-02) (12, -1.60040706396102905273e-02) (13, 6.44337643085214212268e-02) (14, 5.43069955421894429159e-02) (15, -3.10105121672389107135e-02) (16, -7.41407957191128341723e-02) (17, 2.63326109718287799943e-02) (18, 2.76282743882144271597e-02) (19, -7.00180294334830782832e-02) (20, 7.40437582002455435548e-02) (21, -4.73447714990532508850e-02) (22, 8.60642801863455569888e-02) (23, 8.10294216157026181424e-02) (24, -9.53809532604979332104e-02) (25, 7.57560700192444567286e-03) (26, -5.82994181239379835602e-02) (27, -3.73602272078645616937e-02) (28, -2.87629952291453645438e-03) (29, -2.70372241044663647047e-02) (30, 2.23744713011739121411e-02) (31, -4.89052229331991480943e-02) (32, -7.62183930586113056460e-02) (33, -5.33572550488346647457e-02) (34, -1.04367641447787762310e-01) (35, -7.61468083041142163037e-02) (36, 6.98311492089675189820e-02) (37, -2.10613432253553473084e-01) (38, -3.26694788837416580374e-02) (39, 9.17733839393587991218e-02) (40, 9.31149799323207211232e-02) (41, -9.92359947591858609917e-02) (42, 2.85261904011533895531e-01) (43, 1.14296536940873452726e-01) (44, -1.31941316984053452765e-01) (45, -9.49214654683791791978e-02) (46, 4.39621596837923012124e-02) (47, -1.37786301332532418185e-01) (48, 3.18745433201362449172e-01) (49, -7.99310763203833207768e-02) (50, -3.02715110197004713677e-02) (51, -4.01437920642559453732e-02) (52, -1.58323153087461497568e-02) (53, -6.22458012724766487911e-02) (54, 1.31901739554381502995e-01) (55, 2.99840398284578237009e-02) (56, -1.91689960807803587428e-02) (57, -1.58519253456967323945e-01) (58, 5.51672505171979174476e-02) (59, 8.74615391688217114208e-02) (35, 3.39906119670115525189e-01) (36, -3.38731372345232317755e-01) (37, 4.16120053285390423259e-01) (38, 1.29602080035258748758e-01) (39, -5.09757848358857734716e-01) (40, -2.13518724031947659814e-01) (41, 8.25449973591394492445e-02) (42, -7.14006528348769209380e-01) (43, -4.17566416803974327365e-01) (44, 6.52369256527061125439e-02) (45, 2.97407773074283121595e-01) (46, -2.16549040774211720706e-01) (47, 1.24117840462776657384e-01) (48, -6.49707290934777192959e-01) (49, -1.49014430826378690975e-01) (50, -1.32652657254178490964e-01) (51, 3.41725922159589245997e-01) (52, 1.63992029432604519146e-01) (53, -1.42271677155707543250e-01) (54, -2.32803484339921873403e-01) (55, -3.71745995457095634862e-02) (56, 3.36753414732604172688e-01) (57, 2.61028441872231120602e-01) (58, 4.90769036477163231313e-02) (59, -4.34913854706981795051e-01) (35, -1.45119754026939745684e-01) (36, 1.39005992176345599676e-01) (37, -1.09300150315809183055e-01) (38, -7.32776219213170654232e-02) (39, 1.51142966238372172816e-01) (40, 1.21295244672640814554e-01) (41, -1.00260237731749593526e-01) (42, 2.16765365574804802495e-01) (43, 2.44153652772082507827e-01) (44, 3.24159707783606004794e-02) (45, -6.43535263332051660212e-02) (46, -3.67580695698101755919e-02) (47, -5.78034291420505830228e-02) (48, 2.60126001356956793042e-01) (49, -3.30891219471654354778e-02) (50, 2.99698062420640717884e-02) (51, -1.65739427583869253224e-01) (52, -8.50154824785916661545e-03) (53, 4.70923701456838761370e-02) (54, 3.69393975844905381178e-02) (55, 6.11309345563584502492e-02) (56, 7.96057815346622697772e-03) (57, -1.62896461271003906157e-01) (58, -4.55583594711966924362e-02) (59, 9.65150716377076306474e-02) (35, 4.77773344806088517966e-01) (36, -6.59641690191985485825e-01) (37, 5.50492846959356629810e-01) (38, -3.13795946930143631465e-03) (39, -6.52160816346948446487e-01) (40, -3.26700333401563292046e-01) (41, 1.22917636258527543380e-01) (42, -1.07310289198502561980e+00) (43, -4.64784052336359387869e-01) (44, 3.02323353876487066483e-01) (45, 4.85419920311103147981e-01) (46, -1.46676932381564817387e-01) (47, 3.73246701200786124009e-01) (48, -9.12236799815091869981e-01) (49, -1.62792663476219068297e-01) (50, -4.28062196306787656752e-02) (51, 4.74812524088874143846e-01) (52, 2.37762455369581571230e-01) (53, -2.17339379763196449691e-01) (54, -4.29353688674833477990e-01) (55, -2.13614244765131106041e-01) (56, 5.87989570574374620371e-01) (57, 3.94825247647617449953e-01) (58, 1.62774585063903881599e-01) (59, -6.43717247317833640707e-01) (35, 3.61240485795758403675e-01) (36, -4.36921113971884100824e-01) (37, 2.71519077830956745423e-01) (38, 1.58808295974515678584e-01) (39, -3.71194458892600165356e-01) (40, -1.28572152236942016668e-01) (41, 9.14494354588887142787e-02) (42, -5.44227952299746520204e-01) (43, -3.85150952770400623049e-01) (44, 1.62037375755535784094e-01) (45, 1.68285033363648195426e-01) (46, -1.11673691009946507435e-01) (47, 8.17506893860272809693e-02) (48, -5.91523318642518391997e-01) (49, -1.45354402929472908967e-01) (50, -1.68380818152519762254e-01) (51, 3.32995888087525948595e-01) (52, 1.67900443519180125884e-01) (53, -1.78239532405461892361e-01) (54, -1.56853042740936865496e-01) (55, -8.39103544939140133518e-02) (56, 3.80163509890888595688e-01) (57, 2.05421060771299957004e-01) (58, 3.87983194234457345884e-02) (59, -4.01640162381844967321e-01) (35, -1.69052584639364844588e-01) (36, 1.93737598291005952422e-01) (37, -1.29909549146641600803e-01) (38, -1.20132820743168347577e-01) (39, 2.83301550028692727956e-01) (40, 5.50860280709668803656e-02) (41, -1.41656334647225323753e-01) (42, 4.93259928443937678555e-01) (43, 2.93673064518046422755e-01) (44, -1.59992982079412010554e-01) (45, -2.50592208859413356770e-01) (46, 3.43274142056546743840e-02) (47, -7.51922419105424538754e-02) (48, 4.69526516941967175800e-01) (49, 6.04464209166871713208e-02) (50, 2.46070089189238186411e-02) (51, -1.22169052724256405051e-01) (52, -1.25238023277242260800e-01) (53, 4.73132922586691762046e-02) (54, 2.44520242756915556770e-01) (55, 1.44169695619284238958e-02) (56, -2.20789594073923983730e-01) (57, -1.30358419204788772428e-01) (58, -1.29241578055919098533e-01) (59, 2.46957122406011170268e-01) (35, -3.10863485776883829992e-02) (36, 4.81692700095630033097e-02) (37, -4.10326898405819623372e-02) (38, 1.30741830192001740746e-02) (39, 7.44683668765207668061e-02) (40, 8.13577860020741803170e-04) (41, -5.05799730716395036512e-03) (42, -2.07651056293667347907e-02) (43, 1.08172590337342222622e-01) (44, 2.51088672306326241013e-02) (45, 3.88008399115937971380e-02) (46, 8.04836782215334611834e-02) (47, 5.43379201625466268233e-02) (48, 1.87925877950275398154e-02) (49, -8.92942262497988491210e-03) (50, 8.37751901357769307443e-02) (51, -6.88208049867123361487e-02) (52, 1.28906169575081691603e-01) (53, -4.82031778631213797537e-02) (54, -5.74377096126499758766e-02) (55, -1.93633439490751776968e-02) (56, 6.22748366098234695798e-02) (57, -8.89473467711078963349e-02) (58, -3.69995585192338868885e-02) (59, -1.80429558662429156968e-01) (60, -4.43745888975360103235e-01) (61, 1.38617608575901929413e+00) (62, -5.03071502942677883929e-01) (63, 2.20827568462370571467e+00) (64, 1.18276798106640379515e+00) (65, -8.26858727746468180619e-01) (66, -3.38118230740674430290e-01) (67, 2.30863671611973186870e+00) 
