FANN_FLO_2.1
num_layers=4
learning_rate=0.700000
connection_rate=1.000000
network_type=0
learning_momentum=0.000000
training_algorithm=1
train_error_function=0
train_stop_function=0
cascade_output_change_fraction=0.010000
quickprop_decay=-0.000100
quickprop_mu=1.750000
rprop_increase_factor=1.200000
rprop_decrease_factor=0.500000
rprop_delta_min=0.000000
rprop_delta_max=50.000000
rprop_delta_zero=0.100000
cascade_output_stagnation_epochs=12
cascade_candidate_change_fraction=0.010000
cascade_candidate_stagnation_epochs=12
cascade_max_out_epochs=150
cascade_min_out_epochs=50
cascade_max_cand_epochs=150
cascade_min_cand_epochs=50
cascade_num_candidate_groups=2
bit_fail_limit=3.49999999999999977796e-01
cascade_candidate_limit=1.00000000000000000000e+03
cascade_weight_multiplier=4.00000000000000022204e-01
cascade_activation_functions_count=10
cascade_activation_functions=3 5 7 8 10 11 14 15 16 17 
cascade_activation_steepnesses_count=4
cascade_activation_steepnesses=2.50000000000000000000e-01 5.00000000000000000000e-01 7.50000000000000000000e-01 1.00000000000000000000e+00 
layer_sizes=35 25 6 2 
scale_included=0
neurons (num_inputs, activation_function, activation_steepness)=(0, 0, 0.00000000000000000000e+00) (0, 0, 0.00000000000000000000e+00) (0, 0, 0.00000000000000000000e+00) (0, 0, 0.00000000000000000000e+00) (0, 0, 0.00000000000000000000e+00) (0, 0, 0.00000000000000000000e+00) (0, 0, 0.00000000000000000000e+00) (0, 0, 0.00000000000000000000e+00) (0, 0, 0.00000000000000000000e+00) (0, 0, 0.00000000000000000000e+00) (0, 0, 0.00000000000000000000e+00) (0, 0, 0.00000000000000000000e+00) (0, 0, 0.00000000000000000000e+00) (0, 0, 0.00000000000000000000e+00) (0, 0, 0.00000000000000000000e+00) (0, 0, 0.00000000000000000000e+00) (0, 0, 0.00000000000000000000e+00) (0, 0, 0.00000000000000000000e+00) (0, 0, 0.00000000000000000000e+00) (0, 0, 0.00000000000000000000e+00) (0, 0, 0.00000000000000000000e+00) (0, 0, 0.00000000000000000000e+00) (0, 0, 0.00000000000000000000e+00) (0, 0, 0.00000000000000000000e+00) (0, 0, 0.00000000000000000000e+00) (0, 0, 0.00000000000000000000e+00) (0, 0, 0.00000000000000000000e+00) (0, 0, 0.00000000000000000000e+00) (0, 0, 0.00000000000000000000e+00) (0, 0, 0.00000000000000000000e+00) (0, 0, 0.00000000000000000000e+00) (0, 0, 0.00000000000000000000e+00) (0, 0, 0.00000000000000000000e+00) (0, 0, 0.00000000000000000000e+00) (0, 0, 0.00000000000000000000e+00) (35, 11, 5.00000000000000000000e-01) (35, 11, 5.00000000000000000000e-01) (35, 11, 5.00000000000000000000e-01) (35, 11, 5.00000000000000000000e-01) (35, 11, 5.00000000000000000000e-01) (35, 11, 5.00000000000000000000e-01) (35, 11, 5.00000000000000000000e-01) (35, 11, 5.00000000000000000000e-01) (35, 11, 5.00000000000000000000e-01) (35, 11, 5.00000000000000000000e-01) (35, 11, 5.00000000000000000000e-01) (35, 11, 5.00000000000000000000e-01) (35, 11, 5.00000000000000000000e-01) (35, 11, 5.00000000000000000000e-01) (35, 11, 5.00000000000000000000e-01) (35, 11, 5.00000000000000000000e-01) (35, 11, 5.00000000000000000000e-01) (35, 11, 5.00000000000000000000e-01) (35, 11, 5.00000000000000000000e-01) (35, 11, 5.00000000000000000000e-01) (35, 11, 5.00000000000000000000e-01) (35, 11, 5.00000000000000000000e-01) (35, 11, 5.00000000000000000000e-01) (35, 11, 5.00000000000000000000e-01) (0, 11, 0.00000000000000000000e+00) (25, 11, 5.00000000000000000000e-01) (25, 11, 5.00000000000000000000e-01) (25, 11, 5.00000000000000000000e-01) (25, 11, 5.00000000000000000000e-01) (25, 11, 5.00000000000000000000e-01) (0, 11, 0.00000000000000000000e+00) (6, 6, 5.00000000000000000000e-01) (0, 6, 0.00000000000000000000e+00) 
connections (connected_to_neuron, weight)=(0, 5.09673922283208121614e-03) (1, -2.66495033368512324046e-02) (2, 3.45569025948407916593e-03) (3, 1.03754415847722280403e-02) (4, -4.45319738202888367254e-04) (5, -6.52006552976669984112e-02) (6, -1.15606376164413715557e-01) (7, -6.97047955149734110858e-02) (8, 1.57296941333063128310e-02) (9, -4.28342348292059180159e-02) (10, -1.80490524052159158341e-02) (11, -1.22472176452003589375e-01) (12, -4.40679676830768585205e-02) (13, 7.96950103819375615943e-02) (14, -6.11465856047836639475e-02) (15, 2.94476085283990225705e-02) (16, -2.78203963135405726859e-02) (17, -4.61961706285309442466e-02) (18, 5.33086242969203344400e-02) (19, 2.77504287184287164181e-02) (20, -2.70022591994048752340e-02) (21, 7.56263109193525684404e-02) (22, -5.12673908887262830270e-02) (23, -6.18327612238395094013e-02) (24, 7.81002818963740103042e-02) (25, -7.68722348937058846952e-02) (26, 7.32398088672669422827e-02) (27, -9.93839635850569599884e-03) (28, -8.39030735708871377998e-02) (29, -1.08211776893027217250e-01) (30, -8.77047700283134917809e-02) (31, -2.93869229153355610365e-03) (32, -4.89348680026353358152e-02) (33, -9.37162909477707965766e-03) (34, 9.89253688408164300050e-02) (0, -1.62734490126642844521e-01) (1, 2.72218346035618292966e-02) (2, -1.15499605322133824803e-01) (3, 4.79743461865296746960e-02) (4, 7.58720505792010446733e-02) (5, 3.39452994718497935711e-02) (6, 7.72888874537799724918e-02) (7, -1.72043379886442603099e-02) (8, -1.98602325383312426632e-02) (9, 7.13330573435486670064e-02) (10, 2.52218111931438969398e-02) (11, -4.95844094216009584342e-02) (12, 9.48112979531288146973e-02) (13, -5.36708901754497091918e-02) (14, 8.26642170459721131737e-02) (15, 2.28698317027054044692e-02) (16, -4.40128650100979068593e-02) (17, -4.58178293993304341924e-02) (18, 3.47609844900869692508e-03) (19, 5.42481315427900956383e-02) (20, -2.50984522547912031545e-03) (21, 1.16831349881058449425e-02) (22, -2.07336016648865320566e-02) (23, 1.20919428415292434797e-01) (24, -1.01447965582241075855e-01) (25, -1.25351517571191395373e-02) (26, -7.59783761685636632732e-02) (27, 5.49342742083861190761e-02) (28, 7.97597971327600047120e-02) (29, 1.01365107967348010154e-02) (30, -1.24235406472966262992e-02) (31, 1.19999134972310073088e-01) (32, -4.26829968029014128472e-02) (33, 7.16615519765070319025e-02) (34, -2.69231286485801413200e-01) (0, 5.04658131146586627636e-02) (1, -1.39427304025627085693e-01) (2, 6.33646354490658147984e-02) (3, 4.10230338777288691676e-02) (4, 4.35225621069654580730e-02) (5, 5.27612276844533142905e-02) (6, -2.99031688760186056819e-02) (7, -9.50500680531959560304e-03) (8, 5.68389873175322371535e-03) (9, -2.12931390254479657731e-02) (10, -4.62592208975968754991e-02) (11, -2.05557484933661591131e-02) (12, -6.57837092876434326172e-03) (13, 5.39165198643052137606e-02) (14, 1.07129573550412804384e-01) (15, -1.08155774450729255665e-01) (16, -8.27715819978218220188e-02) (17, 5.32307518007843621932e-02) (18, 9.49306463027882463379e-03) (19, -1.15116666490245475596e-01) (20, 5.56236557972428699581e-02) (21, -1.08343632960414104627e-01) (22, -7.57204552203245839781e-02) (23, 1.14496587183938181020e-02) (24, 6.38061195506340050887e-02) (25, 8.18896643729157963643e-02) (26, 4.98264830699390870450e-02) (27, 7.80594250539581174797e-02) (28, -1.21644789648814376053e-03) (29, 1.52421767301907148257e-02) (30, -4.87400346423757166447e-02) (31, -5.52358970649361874505e-02) (32, 3.17483911417242650743e-02) (33, -7.53697013826321038366e-02) (34, -5.18513379228739256649e-03) (0, -2.15860243740666535306e-01) (1, -7.44701276097754771843e-02) (2, -3.69923673812565634300e-01) (3, 7.23752807073396869919e-02) (4, 1.46378408365053069157e-02) (5, 1.52995407486329424579e-02) (6, 1.14853934501678189850e-01) (7, 2.62117960769290662959e-02) (8, 3.40778998700474317074e-02) (9, 2.70111004855336615804e-02) (10, -2.21681915890125820490e-02) (11, -2.89202247579271182198e-03) (12, 5.32124117016792297363e-02) (13, -4.83616526316700268140e-02) (14, -1.45785688870031116676e-02) (15, 1.76389459127116697557e-02) (16, -6.76397427875822659926e-02) (17, -1.70670080902512802390e-02) (18, -5.67702393951349595924e-02) (19, 3.63968797893578291380e-02) (20, -1.83793008269561609913e-02) (21, -3.59142007756845169086e-02) (22, 1.09838767191410210944e-02) (23, 8.02195789989589014279e-03) (24, 6.20925662412267834189e-02) (25, -1.01122946643294214786e-01) (26, -4.66724550804343690791e-02) (27, -4.09239200995452079290e-02) (28, 1.32228317751624385723e-01) (29, -2.31055938158415512251e-02) (30, 9.89061083683949460177e-02) (31, -5.36973275928444640503e-02) (32, -6.30002062084221298166e-02) (33, -9.11823007499804050191e-02) (34, -2.81638933672951730092e-01) (0, -1.73947777280033383240e-01) (1, -2.28568320744094111152e-01) (2, -3.59539495559833111038e-01) (3, -2.68462565106734156462e-02) (4, 1.52536276324333169851e-01) (5, 5.86113377037765677369e-03) (6, 6.03052529493886546597e-02) (7, 5.84342608016811607130e-02) (8, 8.74874828100511009454e-02) (9, 3.89262858507693348953e-02) (10, -7.74416945447412297110e-02) (11, 3.56587334506768410813e-02) (12, 8.75902995467185974121e-02) (13, 1.32576413864764677125e-02) (14, 7.54085726395559430291e-02) (15, 6.53324641105345327308e-02) (16, -2.29725849534016743347e-02) (17, -4.39577045169412192194e-02) (18, -4.38117029395638998834e-02) (19, -4.49592102031851625910e-02) (20, 7.31062874217407732136e-02) (21, -2.28507628394928503923e-02) (22, 9.98561651965511852536e-03) (23, 8.13983419700073929093e-02) (24, -8.18031983888242719694e-02) (25, 3.87138309020737233015e-03) (26, 3.71196324503808156026e-02) (27, -6.27105911846272956467e-02) (28, -3.14608726097999544247e-02) (29, 7.80277202499883582032e-02) (30, 4.21313847278769054716e-02) (31, 1.19136036663514785494e-01) (32, -6.70928657348078133493e-02) (33, -3.74214452977730052674e-02) (34, -3.68458125716692841412e-01) (0, -1.71534229056822355719e-02) (1, 3.17908399636763908461e-03) (2, -2.41022426950622294106e-02) (3, 4.98657027456975085467e-02) (4, -8.55758948054097245972e-02) (5, -1.16501466296957109647e-01) (6, -1.14199929872009484089e-01) (7, -8.63030550337993834775e-02) (8, -9.49732456980717648642e-02) (9, -1.96532504730681824301e-02) (10, -8.30566155578215115085e-02) (11, 2.87818363192876292000e-02) (12, -4.06748540699481964111e-02) (13, -6.34485639150208363679e-02) (14, 5.14906038003684479731e-02) (15, -5.48970756088939804140e-02) (16, -8.16511036887089952652e-02) (17, -6.16341256815623739218e-02) (18, 3.21579514723587533975e-02) (19, 1.22668360025420308812e-01) (20, 2.34645942423503846286e-02) (21, 4.28756723394582289766e-02) (22, 1.18256727503892447584e-01) (23, 1.80162590803634309333e-02) (24, 1.72812942438444402948e-02) (25, 1.06130529908890408608e-01) (26, 3.09654014409194433544e-02) (27, -2.78273965955795204996e-02) (28, -6.55559951108700411648e-02) (29, 9.41602759070959693943e-02) (30, -6.51755194610184052095e-02) (31, 1.75151561819703281697e-02) (32, -3.73973329972741089233e-02) (33, -3.06749715150915272521e-02) (34, 3.98363069622556312255e-02) (0, -1.64866661108649836809e-01) (1, -1.81192082608219340312e-01) (2, -3.81035202213311552377e-01) (3, 1.19193771529544370602e-01) (4, 7.87113026264796428189e-02) (5, 1.05653682250016700550e-01) (6, 5.86791779295640220093e-02) (7, -7.84565847392214299472e-02) (8, -4.23924259949419457438e-02) (9, 8.53696132572501903413e-02) (10, -1.55571801366473829592e-02) (11, -1.74227027875530245116e-02) (12, 9.14239212870597839355e-02) (13, -6.30649680493041656787e-03) (14, -9.46688637162433344052e-02) (15, -7.98273794674651446766e-04) (16, 3.53446009033663507970e-02) (17, 9.73367169320140356026e-03) (18, 2.95569844526008158880e-02) (19, 1.28670271884137338986e-02) (20, 1.09472905247342943563e-02) (21, 3.20977346710151351106e-02) (22, -3.25286662614979946162e-02) (23, 3.50801234580861778789e-02) (24, 1.25868028344971755877e-02) (25, 2.14014596106414899113e-02) (26, 8.01919515534128650447e-03) (27, -4.36545915305875439211e-03) (28, 2.83188015369668956434e-02) (29, -5.07703064175475948794e-02) (30, 4.75578686358566621317e-02) (31, -2.31699605506414524347e-02) (32, -2.34712752110307065756e-02) (33, -5.63213418329395268391e-02) (34, -4.40310839508390838848e-01) (0, 7.79047621692349236133e-04) (1, -3.83094231198935278315e-02) (2, 2.36377130867003265591e-01) (3, -1.38053288620149122723e-01) (4, -1.22451325815355144266e-01) (5, -1.49223042848250428416e-02) (6, -1.95035710662388277192e-02) (7, 1.11416182937924670981e-01) (8, -4.60623257200735991557e-03) (9, 1.84165230308376455526e-02) (10, -7.23869710740411009819e-02) (11, 8.03956272881204379865e-03) (12, -2.19361558556556701660e-02) (13, 5.02359320590466257306e-02) (14, -4.95482480411460410319e-02) (15, 4.60748325241254405582e-02) (16, -3.95879134694845785658e-02) (17, 7.30151271718971900393e-02) (18, 5.89159017700188192279e-02) (19, -2.33603827447149622887e-02) (20, 9.53920165739506192848e-02) (21, 6.99804155373593694822e-02) (22, 1.09815226784618358291e-01) (23, -7.10142382679194821005e-03) (24, -3.93174524435872113637e-02) (25, -8.93089360891988620628e-02) (26, -6.58331782338645171704e-02) (27, -8.75552727285953541481e-02) (28, 2.98420454947857750547e-03) (29, 3.10214130658116420125e-02) (30, 1.51353610316100322536e-02) (31, 3.72126709172225580979e-02) (32, -3.45849212606155961836e-02) (33, -7.65416640457299291000e-02) (34, 2.17034995807405345358e-01) (0, -3.79251340512039084030e-02) (1, -9.37727119176890722141e-02) (2, -1.99764124574434848158e-01) (3, 8.67330866185104937260e-02) (4, 9.09409957257187734347e-02) (5, -1.40063448821818332252e-02) (6, 1.08438304752526096242e-01) (7, -9.18245271304417992608e-02) (8, -3.15288811290644691021e-02) (9, 1.36714376950185845239e-01) (10, -6.31708926599200554231e-02) (11, 9.43823656051476049533e-03) (12, -4.45491634309291839600e-02) (13, -5.17994544585766852896e-02) (14, -6.83046368355878785739e-02) (15, -1.38884771896625441173e-02) (16, -1.07785147689445262587e-01) (17, 7.37611610274112872165e-02) (18, -5.90677973051273244587e-02) (19, 2.96390208874567273253e-03) (20, -7.68383267596592367532e-02) (21, 3.81196270952212975386e-03) (22, 2.89233139488214961721e-02) (23, -5.53905544405293298604e-02) (24, -1.05880602590492020609e-01) (25, -3.13865998042822365657e-03) (26, 4.55795165223825057832e-02) (27, 8.53564393597715798112e-02) (28, -4.16839508615212961384e-02) (29, 1.55150114887279977349e-01) (30, 1.00525212866672611356e-01) (31, 8.03310529647095622474e-02) (32, -7.93389788973002663131e-02) (33, -4.64663043136069944805e-02) (34, -1.27528759923218409922e-01) (0, -2.05955398316433724304e-01) (1, -1.56990463218863923744e-01) (2, -1.80389950166090329287e-01) (3, 2.06261221139867230445e-02) (4, 1.46818650868459854575e-01) (5, 7.41960240694991834953e-02) (6, 3.90016023877978249002e-02) (7, -4.16521000866707929999e-02) (8, 5.62760137666894685871e-02) (9, 3.17911112486015876022e-02) (10, -2.63419721466082237815e-02) (11, -1.11399818421728420692e-02) (12, 1.96847319602966308594e-02) (13, 2.64431126919459601188e-02) (14, 9.87388500310672212468e-03) (15, 3.42207575300254446260e-02) (16, 1.14235377931158686542e-03) (17, 4.53842908465226096970e-02) (18, -8.20194601691403152310e-02) (19, 1.80280671574500131471e-02) (20, 3.41938151238217469263e-02) (21, -7.87517437423865783452e-03) (22, -3.12238205185091542357e-03) (23, 5.38000374998949676408e-02) (24, 2.00566031302112403323e-02) (25, -7.49994487289459971224e-02) (26, -5.66769856043691858116e-02) (27, 5.84078065071793467444e-02) (28, 7.40204489197760079344e-02) (29, 3.98162836608932646509e-02) (30, 1.61406336819678100647e-02) (31, 9.48732243374177108830e-02) (32, -3.82324875392986845979e-02) (33, -8.51245373341904948417e-02) (34, -4.63500230555343395444e-01) (0, 1.71878911687133768826e-02) (1, 1.06043224818467812787e-01) (2, 2.95700843302034499516e-01) (3, -1.29957351335319576391e-01) (4, -1.29817518838676509985e-01) (5, -4.96575214100232753545e-02) (6, 3.82349966715942873874e-02) (7, 1.32773246917750505081e-02) (8, 5.99325806211226802533e-02) (9, -7.53625721282027427605e-02) (10, 5.73021685606821401526e-02) (11, 1.61907541627107666449e-02) (12, 3.79157140851020812988e-02) (13, 6.99006435938387543638e-02) (14, -6.57686040357311485494e-02) (15, -3.92151070581791896807e-02) (16, 7.29853151100267327767e-02) (17, 5.21114648594828908101e-02) (18, 1.84594572796792644187e-02) (19, 2.27556618121664416821e-02) (20, 1.04883498954803339176e-01) (21, -9.88123804341384526229e-02) (22, 1.14671996770574782798e-01) (23, -2.44574365084869703446e-02) (24, 6.96707859942474333481e-02) (25, 8.80941378983520068102e-02) (26, -7.91408992110947534515e-02) (27, 5.23607730249321598470e-02) (28, 1.96184600823952233484e-02) (29, -4.10068298244166129507e-02) (30, -3.96196502185327259493e-02) (31, 8.64752738067051524018e-02) (32, 6.06225994198378373423e-02) (33, 6.15144715005893280568e-02) (34, 2.17929685860278748999e-01) (0, -2.07228153036525780673e-01) (1, -1.88000773097457135608e-01) (2, -2.98931301254822534563e-01) (3, 3.92135943245718529560e-02) (4, 1.33139480180723079883e-01) (5, -2.93439620087121997086e-03) (6, 6.57399459401813816839e-03) (7, 4.74911799191056402392e-02) (8, 9.55967310073321946406e-02) (9, -9.27708403698276722060e-03) (10, 4.13825266535065988682e-02) (11, -3.90763998055784836372e-02) (12, -6.57313317060470581055e-02) (13, 4.03055347755862519721e-02) (14, 6.32478433373685200447e-02) (15, 3.81632397196817255147e-02) (16, -5.05757551601548269171e-02) (17, -5.82555904042875369320e-02) (18, 4.55590710985506255892e-02) (19, 3.70192433997518482308e-03) (20, 9.96003357009717787962e-02) (21, -2.66162563404360556774e-02) (22, -4.41697838124053762665e-02) (23, 9.35850273332104465318e-02) (24, -7.73338601256019497754e-02) (25, -2.97419074907442800015e-02) (26, 8.10760932412733781316e-02) (27, -3.85352651529983561418e-02) (28, -3.04596191625813757231e-02) (29, 2.87213601361976100801e-02) (30, -3.85393583478766364736e-03) (31, -5.08283478883352068944e-02) (32, 6.75708077918799748796e-02) (33, 1.26043420904306518321e-02) (34, -2.04747521048080860506e-01) (0, 6.04863194183330454834e-03) (1, 4.04682796590621132737e-02) (2, -1.56931234616387832448e-01) (3, 4.58528822188460985498e-02) (4, 9.13038900022590249606e-02) (5, 6.24594915737534048250e-02) (6, -1.80754608509467035171e-02) (7, 8.92707822994996541555e-02) (8, 3.18095302941218960324e-02) (9, 1.18565036251846528392e-01) (10, 8.36545467548284044090e-02) (11, -5.10559990694781917764e-02) (12, -1.13702565431594848633e-03) (13, -7.67778435796978020456e-02) (14, 4.89872890379529704608e-02) (15, 1.20466061583784957156e-02) (16, 6.95490584583228210747e-02) (17, -5.48616673682739627860e-02) (18, 8.08473426963279701019e-02) (19, 6.85796654820832324306e-02) (20, -4.50330970819403687833e-03) (21, -4.11516664227075251725e-02) (22, 1.49293662339770351333e-02) (23, 4.69835270131833127039e-02) (24, -3.88494455760017703971e-02) (25, -3.59425092643845256468e-02) (26, -5.51635852885123609268e-02) (27, 2.46559440069378174587e-02) (28, -3.33327370776970097199e-02) (29, 7.42398056056956801019e-02) (30, -4.62479155983792564188e-02) (31, 7.83498308541519111747e-02) (32, 4.52135465042884359538e-03) (33, -5.48896040896184461699e-02) (34, -1.18801874860530315425e-01) (0, 1.02421745439904413044e-01) (1, 1.63028547102377213696e-01) (2, 2.65712688401616325962e-01) (3, -1.00560296221983258569e-01) (4, -8.64260679924606645130e-02) (5, -2.88719116450659556150e-02) (6, -6.18558034438797740839e-02) (7, 3.04713560038462824564e-02) (8, -7.64363448186438226850e-02) (9, -8.55005432658557801284e-02) (10, 4.28285405875188183306e-03) (11, 1.86569700885478723107e-02) (12, -5.52604533731937408447e-02) (13, 6.05163196937474473502e-02) (14, 4.85601825484908225516e-02) (15, 7.00292783178929623134e-02) (16, -3.74439611626339657544e-03) (17, 3.78910198673755096999e-02) (18, -4.57987517252415113345e-02) (19, 4.64374447819667357518e-02) (20, -2.85100910201861665327e-02) (21, 4.23179199391515367679e-02) (22, -5.97204616403441898576e-02) (23, -6.77926808009790271559e-02) (24, 5.71790867630707425051e-02) (25, 1.37615970324102249167e-01) (26, 9.69731000532755849086e-02) (27, 3.23530735757988491264e-02) (28, -7.83397392613119358806e-02) (29, -3.66975790121563741342e-02) (30, -8.21796715269083322131e-02) (31, 4.84807742838768707117e-02) (32, 7.34718269431778037148e-02) (33, 7.90804813268384393377e-02) (34, 2.02841749449135494432e-01) (0, -2.08081681440267091121e-01) (1, -1.33962738206267778507e-01) (2, -3.14179563419887342146e-01) (3, -2.69059356225044114808e-02) (4, 1.23327735446640773809e-01) (5, 1.03415011259931494125e-01) (6, 5.71099725333016478013e-02) (7, 1.55951726962044231323e-02) (8, -7.65994799837304701784e-02) (9, 1.62786815123164320396e-02) (10, -3.65614907452781814912e-02) (11, 4.22451906601277113462e-02) (12, 2.77157500386238098145e-02) (13, -2.29937050026849353068e-02) (14, -1.83905352495221524611e-02) (15, -2.99388928659610233096e-02) (16, -3.48717372167608357161e-03) (17, -1.15046667203313867506e-02) (18, 4.48853840783233343226e-02) (19, 9.44314108312819568136e-03) (20, -2.10301616197740640080e-02) (21, -2.06227417857528369169e-03) (22, -2.35232709153570078431e-02) (23, 9.04817504060722015841e-04) (24, 6.71079791732409752791e-02) (25, -5.95798886185628789880e-02) (26, -6.07379101423823619665e-02) (27, 6.98217431230765961381e-02) (28, 3.90067716882282339297e-02) (29, -4.12007053065886336141e-02) (30, 6.11613474559266068198e-02) (31, -3.48622674464923176796e-02) (32, 8.24371372316691081172e-02) (33, -2.65248799285433337070e-02) (34, -4.01583029401265889646e-01) (0, 9.78455141922995041970e-02) (1, -4.22513077336025485997e-02) (2, 7.31836856994495243978e-02) (3, -1.87198211819977061721e-01) (4, -1.65228025437444969725e-01) (5, 1.80325550322480050724e-02) (6, -4.05531279208553030458e-02) (7, -8.03600265536958680013e-02) (8, -4.55872201752871644698e-02) (9, 1.47093741223601969480e-03) (10, 1.36953200814039256772e-02) (11, 1.27078323695919530312e-02) (12, -6.67385309934616088867e-02) (13, 6.93359511407891232482e-02) (14, 3.82651647876111056235e-02) (15, -3.16600517830048500123e-02) (16, -6.62782190437914975334e-02) (17, 8.15637853239403742833e-02) (18, 6.95621218775140243151e-02) (19, -2.78689523512382977821e-02) (20, 7.56537995149161313080e-02) (21, -4.11126025147114798619e-02) (22, 2.86845284591296899313e-02) (23, -1.25519568166316403124e-02) (24, -1.72613628246352686368e-02) (25, 4.38913979089069969386e-02) (26, -2.74934258649279497297e-03) (27, -1.23470035349471984887e-01) (28, -6.23753244092803277310e-02) (29, 1.07987283290526717150e-01) (30, -2.07205206697594068732e-02) (31, 2.17387306694403967255e-02) (32, -9.83462679860670069276e-02) (33, 7.70028914797796920633e-02) (34, 1.49938717792852949096e-01) (0, -1.51419103588424697193e-01) (1, -8.04481118224538577222e-02) (2, -2.88751681620358080504e-01) (3, 1.50561311185030993753e-01) (4, 1.97432004749446027292e-01) (5, 6.04285017312035290654e-03) (6, -1.12587276284943117732e-02) (7, -2.46672739957269279709e-02) (8, -3.34309169325082491953e-02) (9, -1.81690609184217317928e-02) (10, 8.74391039351411075708e-02) (11, 3.83092581425118405489e-03) (12, -3.08725684881210327148e-02) (13, 1.01862742101883591017e-01) (14, -2.50130113361420394757e-03) (15, 4.23955478293993812122e-02) (16, 3.33774603419331669651e-02) (17, 3.65873456111842423888e-02) (18, -9.18375447281900153529e-02) (19, -2.82342125709492339225e-02) (20, -6.74436125000846264932e-02) (21, 4.00903196884598300720e-02) (22, -5.28173534047900270633e-03) (23, 3.11979541867267867739e-02) (24, -4.74683267943403972011e-02) (25, -8.87313063373421605229e-03) (26, 5.19831389713059713320e-02) (27, -6.08656556582106919584e-02) (28, 7.08833530887399837495e-02) (29, 6.68377230453014170575e-03) (30, -1.27337530598875849075e-02) (31, -7.78141258308339134331e-02) (32, -2.85472230080465738666e-02) (33, 6.07683515580568975323e-02) (34, -2.48469815774624042115e-01) (0, 9.14583675933051398754e-02) (1, 2.35233430249080333052e-01) (2, 7.66175406621679433439e-02) (3, -1.16096194999540189979e-02) (4, -1.38010291399272511104e-01) (5, -1.50347434645537347819e-01) (6, -2.72588354909194773013e-02) (7, 7.76065566563213515838e-02) (8, 1.91286053753435165981e-02) (9, -1.78998335024124453907e-02) (10, 1.79790757946656741539e-02) (11, -1.34428772303065796612e-01) (12, -5.20272254943847656250e-02) (13, -3.61350769588936748811e-02) (14, -7.37879072089597971840e-03) (15, 7.47436088015150795760e-02) (16, 5.24747878587711845400e-03) (17, -3.11797838919032239968e-02) (18, -2.10239496343005219381e-02) (19, 5.12377351147011231292e-02) (20, -6.21081668994118013538e-02) (21, 3.48001702341556654052e-02) (22, 8.58887089631803560263e-03) (23, -8.66591267298019163334e-02) (24, -5.70453615173701494845e-02) (25, 7.65842442308268256390e-02) (26, 6.23805407854906499021e-02) (27, 1.01878468677515775925e-02) (28, -1.52605539754929409035e-01) (29, 2.46194340450170724710e-02) (30, -6.41659890869284016413e-02) (31, 1.43992449530789407008e-02) (32, 2.80413234771892429242e-02) (33, 3.16144175712666231082e-02) (34, 5.38833128137207406638e-01) (0, 5.01430885700668363403e-02) (1, 6.95800155118234814333e-02) (2, 5.56422390358710938774e-02) (3, 4.13165672245272772023e-02) (4, -1.88118012127630497565e-02) (5, -2.02752505386105501273e-02) (6, -6.81014099708893566598e-02) (7, -1.68274204836058732804e-02) (8, 2.81303863924717602318e-02) (9, -1.12524440056566005230e-02) (10, 3.69445695010469435382e-02) (11, -8.86095846907940104531e-02) (12, 8.42454805970191955566e-02) (13, 4.24799022079066571078e-02) (14, -6.50913485482518539005e-02) (15, 4.39148229544045476391e-02) (16, -8.40085499631840898482e-02) (17, 7.05878570035237962177e-02) (18, -1.29703587739301781645e-03) (19, -2.63791400090011710425e-03) (20, -2.03532287052541165095e-02) (21, -7.78295157909515422645e-02) (22, -3.40982932514217879083e-02) (23, -5.44544945923867221294e-02) (24, -7.34836372071933918715e-02) (25, -9.69820897177023077962e-02) (26, 7.37631813446157635905e-02) (27, -3.55780255825338051490e-02) (28, -3.03474979897336207685e-03) (29, 1.11496124967283907758e-03) (30, -3.43611446027885583665e-02) (31, -5.65649931799729610571e-02) (32, -3.55055031078076455131e-02) (33, -8.62890249547986348810e-02) (34, 9.32735523154228640674e-02) (0, 3.24865995085799386111e-01) (1, 3.07938705379782295957e-01) (2, 8.56065946055365234457e-01) (3, -7.19171313100241543781e-02) (4, -7.27706474714659712344e-02) (5, -4.33970559001475089667e-02) (6, 2.16900211007023495380e-02) (7, -2.02640230266678440796e-02) (8, 1.86888184893964810762e-02) (9, -1.81632204933333436803e-02) (10, 1.09344817770293100540e-02) (11, -8.63554089284965659123e-02) (12, 9.80645418167114257812e-05) (13, -4.20426006996413095806e-02) (14, 2.55324492100870055478e-02) (15, -3.18304797033189777744e-03) (16, 6.63578785829151140963e-02) (17, 4.29180276619026551677e-02) (18, -1.38399886859825668739e-02) (19, -1.24531272875514163051e-02) (20, 6.89389509271999458700e-03) (21, 6.53399861708725722409e-03) (22, -3.19672361888219333514e-02) (23, -7.40993539349170532438e-02) (24, 7.37655060328641642986e-02) (25, 3.10938203628347356600e-02) (26, 3.40775439868599080984e-02) (27, -6.56719634334629320804e-02) (28, -3.56390273058686674057e-02) (29, 5.22270784396792822624e-02) (30, -7.26111381776995724879e-03) (31, -2.18626726781900558583e-02) (32, 3.40943322713989221961e-02) (33, -1.05202009338064408905e-01) (34, 4.97156259143992418359e-01) (0, -1.82205983689033533535e-02) (1, 3.38867664105343691094e-02) (2, 2.35251035569318617258e-01) (3, -1.06260457250664422379e-01) (4, 3.36423405688048970247e-03) (5, -2.22160623956250656563e-02) (6, -2.90547961815111610573e-02) (7, 2.45985849256579180988e-02) (8, 8.05451988229306387046e-02) (9, -2.56374661974694819863e-03) (10, -5.16038935698906291172e-03) (11, 5.77373000388277449191e-02) (12, -8.44327285885810852051e-02) (13, -1.00217508595264959137e-01) (14, -8.27715863637086893267e-03) (15, 8.85552546928904948942e-02) (16, 8.64641111632347275640e-02) (17, 5.48391494540603902097e-02) (18, -3.69109179693139074704e-03) (19, 1.40800810667496195672e-01) (20, 7.84091931146702059152e-02) (21, 4.81177070745485019332e-02) (22, 2.14968153035557038577e-02) (23, 5.02327468561724124751e-03) (24, -1.18744015716101269931e-01) (25, 8.64585167015051864192e-02) (26, 6.55794256329715746778e-02) (27, -1.02194543050777089666e-01) (28, 2.92298593729297707944e-02) (29, 6.25204402945937071090e-02) (30, -6.98861719686925259021e-02) (31, 6.24094570953344432440e-02) (32, 1.89100337125197547061e-02) (33, -1.71862267219424283415e-02) (34, 9.13449905023829000772e-02) (0, 7.06928395173408580243e-02) (1, 2.31411739581014713751e-01) (2, 3.75752900168838055439e-01) (3, -2.13094679784843268888e-02) (4, -3.37144909572669737585e-02) (5, -1.16610745011967567586e-01) (6, -6.75443180183293995222e-02) (7, 7.19627029858976308141e-02) (8, -6.10033321043087842228e-02) (9, -8.88428242801001799567e-02) (10, -9.30817235616889504524e-02) (11, -1.43944651674943413511e-01) (12, -9.05443876981735229492e-02) (13, 5.29640088017459612080e-02) (14, 3.77204574353202579107e-02) (15, 1.60454827043942892251e-02) (16, 2.06291048374298742474e-02) (17, -5.07187462468830230211e-02) (18, -2.02453794070839906277e-04) (19, -4.79089572063541146302e-03) (20, -3.90003363446452741559e-02) (21, 2.80427673781657033070e-02) (22, -3.09660758622148967259e-03) (23, -3.46195146360306349465e-02) (24, -2.46638000222897946223e-02) (25, 1.99690811860021924518e-02) (26, 7.04681591949622709858e-02) (27, -5.80729223041140801831e-02) (28, -4.38306440432293248355e-02) (29, 2.01772582573845997433e-02) (30, -4.13460325905751630016e-02) (31, 3.10435985957004285940e-02) (32, -9.60427581376800676427e-02) (33, -6.82670021760568984659e-02) (34, 4.14035560400554225602e-01) (0, 4.35550546448446804226e-02) (1, -7.36778255792790298662e-02) (2, 2.72526943170502376768e-02) (3, 9.60040571409165183203e-02) (4, 6.19815694409311529478e-02) (5, -2.90506779882512868041e-02) (6, 1.04677943975025444789e-01) (7, 3.21222235069095404802e-02) (8, -7.92691235979964686775e-02) (9, 5.35099071004204729363e-02) (10, -6.74441330731422455935e-02) (11, -3.01429169683067668672e-02) (12, -8.48784297704696655273e-03) (13, -1.32800048393339181069e-02) (14, -4.55183492466998494003e-03) (15, -9.91167646851496830784e-02) (16, 3.60339736614781053214e-02) (17, -1.04727519225746995568e-01) (18, -3.27060885396653500817e-03) (19, -2.89673242482993038849e-02) (20, -2.85395549141265122972e-02) (21, 6.64373386021271938873e-02) (22, -5.90975557565615594591e-02) (23, 9.43314786669040422629e-02) (24, 6.27008876791652347560e-02) (25, 2.26456197300194048139e-02) (26, -4.44552973896461950387e-02) (27, 5.82768536373199069062e-03) (28, 7.40663797794690048626e-02) (29, -1.74455615061092222939e-02) (30, -4.62705765599430648982e-02) (31, 5.03988334261146683768e-02) (32, 6.58488353055397684921e-02) (33, 8.50573022059512157123e-02) (34, -8.53695815116740641670e-02) (0, 1.30238974772526827639e-01) (1, 2.31966841492201147901e-01) (2, 1.74374952148816958486e-01) (3, -5.16218907260173193174e-02) (4, -4.79629701995127749603e-02) (5, -1.34169873943215361978e-01) (6, -7.59908561020975620304e-02) (7, -4.11450128757300179205e-02) (8, 1.82240296920753719334e-02) (9, -2.94401786054462322184e-02) (10, -2.79285831964423518492e-03) (11, 9.45577561859855912629e-03) (12, -3.26650664210319519043e-02) (13, 5.07917551059375478595e-03) (14, -3.04158966843437600369e-02) (15, 4.18963470172597010621e-02) (16, -1.96823265315131216979e-02) (17, -1.13640616300795499471e-01) (18, 6.78012421100397666418e-02) (19, 1.09573019109950250960e-01) (20, 3.39866748637546317591e-02) (21, 3.07359857662135929623e-02) (22, -1.92061065109637996162e-02) (23, -7.18178657102142431468e-02) (24, -5.55415844614527837164e-02) (25, 9.80448786095731994461e-02) (26, 2.25089085530546587077e-02) (27, -5.67635411034592071711e-02) (28, -2.30599921993981903101e-02) (29, 1.25313088297235829260e-02) (30, -6.94234455374787423620e-02) (31, 1.83323397198926485441e-02) (32, -9.07592728787547098346e-02) (33, 7.17478912081937064693e-02) (34, 5.16581104041171190744e-01) (35, -1.18839682951279723699e-01) (36, 2.61679555760095550188e-01) (37, -1.30121243932729245552e-02) (38, 2.42723595364508298866e-01) (39, 3.05074684652309635613e-01) (40, -6.79850074089390771226e-02) (41, 4.50063826206195616297e-01) (42, -3.38425704934486371034e-01) (43, 2.82983025623850747987e-01) (44, 3.27875727172894926298e-01) (45, -3.16489101648362525232e-01) (46, 2.86198144757173755792e-01) (47, 1.50408630331180515061e-01) (48, -2.83862719270882524203e-01) (49, 3.29973073872256772443e-01) (50, -1.87838652437247843885e-01) (51, 3.14396760338161274095e-01) (52, -4.07163476659988810002e-01) (53, -3.39742961422309225350e-02) (54, -6.19980228375124453599e-01) (55, -1.44283084536036193546e-01) (56, -3.15245800774974660463e-01) (57, 8.69895971670272966092e-02) (58, -2.78722351328402173642e-01) (59, -5.39383595697059292640e-01) (35, 6.30464075000060769627e-02) (36, -1.59142882257145873437e-01) (37, -1.31183497310527613644e-01) (38, -1.11022604545324254932e-01) (39, -2.61918184460175451633e-01) (40, 1.46958881347232755976e-01) (41, -3.13141305771331424079e-01) (42, 4.01079097100256048991e-02) (43, -2.08645034218317787511e-01) (44, -2.33340980086787747050e-01) (45, 1.54057081297280046295e-01) (46, -1.26946133827017859641e-01) (47, -1.36167975635700155834e-01) (48, 1.45048782924469321642e-01) (49, -1.66861957933676058330e-01) (50, 1.72340981724063035951e-01) (51, -1.21489893833996095984e-01) (52, 1.60619048617697712800e-01) (53, 8.50670525205651784084e-03) (54, 3.94401385515421254446e-01) (55, 1.52807348891901811916e-01) (56, 2.87648996403990331316e-01) (57, -1.34304190297932831560e-02) (58, 2.87952877995994671600e-01) (59, 3.08515851234458626795e-01) (35, 8.66602032629239099615e-02) (36, -1.27895676425606480420e-01) (37, -8.72447745186106238258e-02) (38, -2.82551778383319740495e-01) (39, -3.07918411084235621455e-01) (40, 4.56723983177627218533e-02) (41, -2.20829510162321801525e-01) (42, 1.63197679728658479048e-01) (43, -1.79096822193800908618e-01) (44, -1.97708857821298100710e-01) (45, 2.04342648165840606866e-01) (46, -2.36332414885588565356e-01) (47, -5.14811099509820888076e-02) (48, 1.84692406836994948982e-01) (49, -2.77127760719469817818e-01) (50, 2.39217560097156750620e-01) (51, -2.59316869577952469061e-01) (52, 3.62880760266006963111e-01) (53, -1.32065697226291991345e-02) (54, 4.76189064466688516397e-01) (55, 1.23250874462799892006e-01) (56, 3.24182109727138345612e-01) (57, -1.03865888098994399447e-01) (58, 3.08105849810374587960e-01) (59, 3.95136281573218395291e-01) (35, -6.40281164430669402776e-02) (36, 2.82352188705011011849e-02) (37, -6.10275800870212076221e-02) (38, 5.63467163819936986413e-02) (39, 1.88394088479279658843e-02) (40, 1.24619235326389757312e-01) (41, 6.97557843437205792742e-03) (42, -4.53042840004791308450e-02) (43, -6.40714483809425305871e-02) (44, 5.85356511060772313759e-02) (45, 9.40641128407584460082e-04) (46, 7.61298085284893219504e-03) (47, 4.36313138147916695919e-02) (48, 8.08562780493950611360e-02) (49, -1.18922308842728044476e-01) (50, 1.77182053421696995843e-02) (51, -3.57505834071954603504e-02) (52, -6.41577352039962925390e-03) (53, -7.05894448300113386274e-02) (54, 1.38896788732921189213e-01) (55, 3.69100277179368538305e-02) (56, -4.50949208989005825843e-02) (57, -8.69646197233482354250e-02) (58, 5.14142965839184604149e-02) (59, -1.24569034936623107557e-01) (35, 1.05892474938937150575e-01) (36, -2.52480026650840350122e-01) (37, -1.31825371285915204922e-01) (38, -4.31676796701057907679e-01) (39, -4.48396996258476676633e-01) (40, 1.11307048531386384993e-01) (41, -5.07683250142915709624e-01) (42, 3.59970348176657017891e-01) (43, -1.87097906219629961377e-01) (44, -4.59134645864579415964e-01) (45, 2.90305004107393294088e-01) (46, -2.55326135771167250788e-01) (47, -1.02944831964971297844e-01) (48, 2.92777318361228944266e-01) (49, -4.63561940084447010602e-01) (50, 2.36546612043414428150e-01) (51, -3.49791129826937607916e-01) (52, 4.38830591981817563774e-01) (53, 1.03771736633661723626e-01) (54, 7.51015874007204264906e-01) (55, 2.03556125802361792543e-01) (56, 4.51302858754874358649e-01) (57, -1.42768583273123222943e-01) (58, 4.63242249439225706187e-01) (59, 6.78179195577285232055e-01) (60, 1.48689772399541930703e+00) (61, -9.07887787497081433230e-01) (62, -1.16739173034648580085e+00) (63, -1.97572528708902683814e-01) (64, -1.89361694282103343312e+00) (65, 1.79601804963825295580e+00) 
